digraph Tree {
node [shape=box, style="filled, rounded", color="black", fontname=helvetica] ;
edge [fontname=helvetica] ;
0 [label="Type <= 2.5\ngini = 0.5\nsamples = 64320\nvalue = [45904, 55982]\nclass = 1", fillcolor="#dbedfa"] ;
1 [label="Market <= 3.5\ngini = 0.48\nsamples = 51492\nvalue = [33043, 48455]\nclass = 1", fillcolor="#c0e0f7"] ;
0 -> 1 [labeldistance=2.5, labelangle=45, headlabel="True"] ;
2 [label="Sales <= 50.01\ngini = 0.47\nsamples = 47044\nvalue = [28535, 45889]\nclass = 1", fillcolor="#b4daf5"] ;
1 -> 2 ;
3 [label="Sales <= 49.97\ngini = 0.49\nsamples = 3032\nvalue = [2829, 2031]\nclass = 0", fillcolor="#f8dbc7"] ;
2 -> 3 ;
4 [label="gini = 0.5\nsamples = 1754\nvalue = [1378, 1411]\nclass = 1", fillcolor="#fafdfe"] ;
3 -> 4 ;
5 [label="gini = 0.42\nsamples = 1278\nvalue = [1451, 620]\nclass = 0", fillcolor="#f0b78e"] ;
3 -> 5 ;
6 [label="Order State <= 90.5\ngini = 0.47\nsamples = 44012\nvalue = [25706, 43858]\nclass = 1", fillcolor="#add6f4"] ;
2 -> 6 ;
7 [label="gini = 0.5\nsamples = 2490\nvalue = [1957, 1986]\nclass = 1", fillcolor="#fcfeff"] ;
6 -> 7 ;
8 [label="gini = 0.46\nsamples = 41522\nvalue = [23749, 41872]\nclass = 1", fillcolor="#a9d5f4"] ;
6 -> 8 ;
9 [label="Sales <= 398.65\ngini = 0.46\nsamples = 4448\nvalue = [4508, 2566]\nclass = 0", fillcolor="#f4c9aa"] ;
1 -> 9 ;
10 [label="Sales <= 300.97\ngini = 0.47\nsamples = 3933\nvalue = [3902, 2361]\nclass = 0", fillcolor="#f5cdb1"] ;
9 -> 10 ;
11 [label="gini = 0.47\nsamples = 3872\nvalue = [3895, 2269]\nclass = 0", fillcolor="#f4caac"] ;
10 -> 11 ;
12 [label="gini = 0.13\nsamples = 61\nvalue = [7, 92]\nclass = 1", fillcolor="#48a4e7"] ;
10 -> 12 ;
13 [label="Customer Zipcode <= 94941.0\ngini = 0.38\nsamples = 515\nvalue = [606, 205]\nclass = 0", fillcolor="#eeac7c"] ;
9 -> 13 ;
14 [label="gini = 0.37\nsamples = 498\nvalue = [595, 191]\nclass = 0", fillcolor="#eda979"] ;
13 -> 14 ;
15 [label="gini = 0.49\nsamples = 17\nvalue = [11, 14]\nclass = 1", fillcolor="#d5eaf9"] ;
13 -> 15 ;
16 [label="Sales <= 50.11\ngini = 0.47\nsamples = 12828\nvalue = [12861, 7527]\nclass = 0", fillcolor="#f4cbad"] ;
0 -> 16 [labeldistance=2.5, labelangle=-45, headlabel="False"] ;
17 [label="Latitude <= 18.29\ngini = 0.35\nsamples = 994\nvalue = [1214, 346]\nclass = 0", fillcolor="#eca571"] ;
16 -> 17 ;
18 [label="Order State <= 1035.0\ngini = 0.41\nsamples = 307\nvalue = [347, 143]\nclass = 0", fillcolor="#f0b58b"] ;
17 -> 18 ;
19 [label="gini = 0.42\nsamples = 296\nvalue = [329, 143]\nclass = 0", fillcolor="#f0b88f"] ;
18 -> 19 ;
20 [label="gini = 0.0\nsamples = 11\nvalue = [18, 0]\nclass = 0", fillcolor="#e58139"] ;
18 -> 20 ;
21 [label="Sales <= 47.82\ngini = 0.31\nsamples = 687\nvalue = [867, 203]\nclass = 0", fillcolor="#eb9f67"] ;
17 -> 21 ;
22 [label="gini = 0.39\nsamples = 313\nvalue = [350, 124]\nclass = 0", fillcolor="#eeae7f"] ;
21 -> 22 ;
23 [label="gini = 0.23\nsamples = 374\nvalue = [517, 79]\nclass = 0", fillcolor="#e99457"] ;
21 -> 23 ;
24 [label="Order State <= 985.5\ngini = 0.47\nsamples = 11834\nvalue = [11647, 7181]\nclass = 0", fillcolor="#f5cfb3"] ;
16 -> 24 ;
25 [label="Sales <= 399.93\ngini = 0.48\nsamples = 10822\nvalue = [10530, 6693]\nclass = 0", fillcolor="#f6d1b7"] ;
24 -> 25 ;
26 [label="gini = 0.48\nsamples = 9393\nvalue = [8888, 6025]\nclass = 0", fillcolor="#f7d6bf"] ;
25 -> 26 ;
27 [label="gini = 0.41\nsamples = 1429\nvalue = [1642, 668]\nclass = 0", fillcolor="#f0b48a"] ;
25 -> 27 ;
28 [label="Longitude <= -97.07\ngini = 0.42\nsamples = 1012\nvalue = [1117, 488]\nclass = 0", fillcolor="#f0b890"] ;
24 -> 28 ;
29 [label="gini = 0.35\nsamples = 296\nvalue = [360, 104]\nclass = 0", fillcolor="#eda572"] ;
28 -> 29 ;
30 [label="gini = 0.45\nsamples = 716\nvalue = [757, 384]\nclass = 0", fillcolor="#f2c19d"] ;
28 -> 30 ;
}