digraph Tree {
node [shape=box, style="filled, rounded", color="black", fontname=helvetica] ;
edge [fontname=helvetica] ;
0 [label="Type <= 2.5\ngini = 0.49\nsamples = 67003\nvalue = [45743, 60217]\nclass = 1", fillcolor="#cfe7f9"] ;
1 [label="Product Name <= 101.5\ngini = 0.47\nsamples = 53948\nvalue = [33038, 52305]\nclass = 1", fillcolor="#b6dbf5"] ;
0 -> 1 [labeldistance=2.5, labelangle=45, headlabel="True"] ;
2 [label="Market <= 3.5\ngini = 0.47\nsamples = 51225\nvalue = [30294, 50698]\nclass = 1", fillcolor="#afd8f5"] ;
1 -> 2 ;
3 [label="Product Name <= 71.5\ngini = 0.46\nsamples = 47049\nvalue = [26234, 48129]\nclass = 1", fillcolor="#a5d2f3"] ;
2 -> 3 ;
4 [label="gini = 0.47\nsamples = 42283\nvalue = [25041, 41805]\nclass = 1", fillcolor="#b0d8f5"] ;
3 -> 4 ;
5 [label="gini = 0.27\nsamples = 4766\nvalue = [1193, 6324]\nclass = 1", fillcolor="#5eafea"] ;
3 -> 5 ;
6 [label="Order State <= 1051.5\ngini = 0.47\nsamples = 4176\nvalue = [4060, 2569]\nclass = 0", fillcolor="#f5d1b6"] ;
2 -> 6 ;
7 [label="gini = 0.48\nsamples = 3921\nvalue = [3746, 2465]\nclass = 0", fillcolor="#f6d4bb"] ;
6 -> 7 ;
8 [label="gini = 0.37\nsamples = 255\nvalue = [314, 104]\nclass = 0", fillcolor="#eeab7b"] ;
6 -> 8 ;
9 [label="Longitude <= -67.07\ngini = 0.47\nsamples = 2723\nvalue = [2744, 1607]\nclass = 0", fillcolor="#f4cbad"] ;
1 -> 9 ;
10 [label="Department Name <= 4.5\ngini = 0.44\nsamples = 1618\nvalue = [1739, 827]\nclass = 0", fillcolor="#f1bd97"] ;
9 -> 10 ;
11 [label="gini = 0.48\nsamples = 158\nvalue = [106, 153]\nclass = 1", fillcolor="#c2e1f7"] ;
10 -> 11 ;
12 [label="gini = 0.41\nsamples = 1460\nvalue = [1633, 674]\nclass = 0", fillcolor="#f0b58b"] ;
10 -> 12 ;
13 [label="Sales <= 42.27\ngini = 0.49\nsamples = 1105\nvalue = [1005, 780]\nclass = 0", fillcolor="#f9e3d3"] ;
9 -> 13 ;
14 [label="gini = 0.41\nsamples = 174\nvalue = [206, 85]\nclass = 0", fillcolor="#f0b58b"] ;
13 -> 14 ;
15 [label="gini = 0.5\nsamples = 931\nvalue = [799, 695]\nclass = 0", fillcolor="#fcefe5"] ;
13 -> 15 ;
16 [label="Late_delivery_risk <= 0.5\ngini = 0.47\nsamples = 13055\nvalue = [12705, 7912]\nclass = 0", fillcolor="#f5cfb4"] ;
0 -> 16 [labeldistance=2.5, labelangle=-45, headlabel="False"] ;
17 [label="Sales <= 50.11\ngini = 0.49\nsamples = 7268\nvalue = [6578, 4907]\nclass = 0", fillcolor="#f8dfcd"] ;
16 -> 17 ;
18 [label="Customer State <= 33.5\ngini = 0.39\nsamples = 530\nvalue = [602, 221]\nclass = 0", fillcolor="#efaf82"] ;
17 -> 18 ;
19 [label="gini = 0.33\nsamples = 269\nvalue = [335, 89]\nclass = 0", fillcolor="#eca26e"] ;
18 -> 19 ;
20 [label="gini = 0.44\nsamples = 261\nvalue = [267, 132]\nclass = 0", fillcolor="#f2bf9b"] ;
18 -> 20 ;
21 [label="Department Name <= 0.5\ngini = 0.49\nsamples = 6738\nvalue = [5976, 4686]\nclass = 0", fillcolor="#f9e4d4"] ;
17 -> 21 ;
22 [label="gini = 0.46\nsamples = 1816\nvalue = [1853, 1052]\nclass = 0", fillcolor="#f4c9a9"] ;
21 -> 22 ;
23 [label="gini = 0.5\nsamples = 4922\nvalue = [4123, 3634]\nclass = 0", fillcolor="#fcf0e8"] ;
21 -> 23 ;
24 [label="Sales <= 60.27\ngini = 0.44\nsamples = 5787\nvalue = [6127, 3005]\nclass = 0", fillcolor="#f2bf9a"] ;
16 -> 24 ;
25 [label="Customer Street <= 666.5\ngini = 0.33\nsamples = 619\nvalue = [766, 197]\nclass = 0", fillcolor="#eca16c"] ;
24 -> 25 ;
26 [label="gini = 0.11\nsamples = 63\nvalue = [95, 6]\nclass = 0", fillcolor="#e78946"] ;
25 -> 26 ;
27 [label="gini = 0.34\nsamples = 556\nvalue = [671, 191]\nclass = 0", fillcolor="#eca571"] ;
25 -> 27 ;
28 [label="Department Name <= 2.5\ngini = 0.45\nsamples = 5168\nvalue = [5361, 2808]\nclass = 0", fillcolor="#f3c3a1"] ;
24 -> 28 ;
29 [label="gini = 0.48\nsamples = 1579\nvalue = [1503, 1015]\nclass = 0", fillcolor="#f7d6bf"] ;
28 -> 29 ;
30 [label="gini = 0.43\nsamples = 3589\nvalue = [3858, 1793]\nclass = 0", fillcolor="#f1bc95"] ;
28 -> 30 ;
}