digraph Tree {
node [shape=box, style="filled, rounded", color="black", fontname=helvetica] ;
edge [fontname=helvetica] ;
0 [label="Order State <= 1032.5\ngini = 0.49\nsamples = 66880\nvalue = [45364, 60583]\nclass = 1", fillcolor="#cde6f8"] ;
1 [label="Latitude <= 18.28\ngini = 0.49\nsamples = 64057\nvalue = [42862, 58674]\nclass = 1", fillcolor="#cae5f8"] ;
0 -> 1 [labeldistance=2.5, labelangle=45, headlabel="True"] ;
2 [label="Department Name <= 5.5\ngini = 0.47\nsamples = 19944\nvalue = [12155, 19445]\nclass = 1", fillcolor="#b5daf5"] ;
1 -> 2 ;
3 [label="Market <= 3.5\ngini = 0.46\nsamples = 16369\nvalue = [9209, 16758]\nclass = 1", fillcolor="#a6d3f3"] ;
2 -> 3 ;
4 [label="gini = 0.44\nsamples = 15035\nvalue = [7944, 15944]\nclass = 1", fillcolor="#9ccef2"] ;
3 -> 4 ;
5 [label="gini = 0.48\nsamples = 1334\nvalue = [1265, 814]\nclass = 0", fillcolor="#f6d2b8"] ;
3 -> 5 ;
6 [label="Order Region <= 3.5\ngini = 0.5\nsamples = 3575\nvalue = [2946, 2687]\nclass = 0", fillcolor="#fdf4ee"] ;
2 -> 6 ;
7 [label="gini = 0.46\nsamples = 694\nvalue = [692, 394]\nclass = 0", fillcolor="#f4c9aa"] ;
6 -> 7 ;
8 [label="gini = 0.5\nsamples = 2881\nvalue = [2254, 2293]\nclass = 1", fillcolor="#fcfdff"] ;
6 -> 8 ;
9 [label="Type <= 2.5\ngini = 0.49\nsamples = 44113\nvalue = [30707, 39229]\nclass = 1", fillcolor="#d4eaf9"] ;
1 -> 9 ;
10 [label="Department Name <= 5.5\ngini = 0.48\nsamples = 35441\nvalue = [22301, 33909]\nclass = 1", fillcolor="#bbddf6"] ;
9 -> 10 ;
11 [label="gini = 0.46\nsamples = 29052\nvalue = [16574, 29556]\nclass = 1", fillcolor="#a8d4f4"] ;
10 -> 11 ;
12 [label="gini = 0.49\nsamples = 6389\nvalue = [5727, 4353]\nclass = 0", fillcolor="#f9e1cf"] ;
10 -> 12 ;
13 [label="Longitude <= -82.88\ngini = 0.47\nsamples = 8672\nvalue = [8406, 5320]\nclass = 0", fillcolor="#f5d1b6"] ;
9 -> 13 ;
14 [label="gini = 0.48\nsamples = 5251\nvalue = [4961, 3424]\nclass = 0", fillcolor="#f7d8c2"] ;
13 -> 14 ;
15 [label="gini = 0.46\nsamples = 3421\nvalue = [3445, 1896]\nclass = 0", fillcolor="#f3c6a6"] ;
13 -> 15 ;
16 [label="Customer State <= 33.5\ngini = 0.49\nsamples = 2823\nvalue = [2502, 1909]\nclass = 0", fillcolor="#f9e1d0"] ;
0 -> 16 [labeldistance=2.5, labelangle=-45, headlabel="False"] ;
17 [label="Order State <= 1063.5\ngini = 0.46\nsamples = 1378\nvalue = [1382, 765]\nclass = 0", fillcolor="#f3c7a7"] ;
16 -> 17 ;
18 [label="Customer Street <= 5903.0\ngini = 0.47\nsamples = 1135\nvalue = [1110, 691]\nclass = 0", fillcolor="#f5cfb4"] ;
17 -> 18 ;
19 [label="gini = 0.49\nsamples = 918\nvalue = [837, 618]\nclass = 0", fillcolor="#f8decb"] ;
18 -> 19 ;
20 [label="gini = 0.33\nsamples = 217\nvalue = [273, 73]\nclass = 0", fillcolor="#eca36e"] ;
18 -> 20 ;
21 [label="Customer Street <= 269.5\ngini = 0.34\nsamples = 243\nvalue = [272, 74]\nclass = 0", fillcolor="#eca36f"] ;
17 -> 21 ;
22 [label="gini = 0.0\nsamples = 11\nvalue = [0, 13]\nclass = 1", fillcolor="#399de5"] ;
21 -> 22 ;
23 [label="gini = 0.3\nsamples = 232\nvalue = [272, 61]\nclass = 0", fillcolor="#eb9d65"] ;
21 -> 23 ;
24 [label="Longitude <= -76.23\ngini = 0.5\nsamples = 1445\nvalue = [1120, 1144]\nclass = 1", fillcolor="#fbfdfe"] ;
16 -> 24 ;
25 [label="Latitude <= 29.71\ngini = 0.41\nsamples = 221\nvalue = [243, 100]\nclass = 0", fillcolor="#f0b58a"] ;
24 -> 25 ;
26 [label="gini = 0.13\nsamples = 55\nvalue = [80, 6]\nclass = 0", fillcolor="#e78a48"] ;
25 -> 26 ;
27 [label="gini = 0.46\nsamples = 166\nvalue = [163, 94]\nclass = 0", fillcolor="#f4caab"] ;
25 -> 27 ;
28 [label="Longitude <= -66.05\ngini = 0.5\nsamples = 1224\nvalue = [877, 1044]\nclass = 1", fillcolor="#dfeffb"] ;
24 -> 28 ;
29 [label="gini = 0.49\nsamples = 1134\nvalue = [763, 1018]\nclass = 1", fillcolor="#cde6f8"] ;
28 -> 29 ;
30 [label="gini = 0.3\nsamples = 90\nvalue = [114, 26]\nclass = 0", fillcolor="#eb9e66"] ;
28 -> 30 ;
}